~o
<STREAMINFO> 1 39
<VECSIZE> 39<NULLD><MFCC_D_A_0><DIAGC>
~h "security_english"
<BEGINHMM>
<NUMSTATES> 6
<STATE> 2
<MEAN> 39
 -3.035732e+01 4.602287e+00 -2.083735e+00 -6.203052e+00 5.434093e+00 -6.660909e+00 1.310215e+00 -1.853917e+00 4.277470e+00 -6.025507e-01 3.540335e+00 2.457578e-01 6.689060e+01 1.139414e-01 -7.219201e-01 5.097587e-01 -4.013546e-01 4.913223e-01 -1.866763e+00 -2.320979e-01 -1.187380e-02 2.772005e-02 -4.244323e-01 -7.540593e-02 2.499846e-01 2.483582e+00 3.863207e-01 1.061044e-01 2.285484e-01 4.164814e-01 -6.650887e-01 2.691439e-01 -4.189695e-01 -7.572663e-02 -3.581070e-01 -2.058350e-01 -1.112505e-02 -1.240803e-01 -1.127484e+00
<VARIANCE> 39
 3.964886e+01 1.473612e+01 5.241186e+01 2.552824e+01 2.535329e+01 4.784649e+01 2.815411e+01 1.620609e+01 1.870864e+01 1.687148e+01 2.133728e+01 1.781686e+01 7.849854e+01 9.439651e+00 1.941526e+00 4.242136e+00 2.673479e+00 6.004133e+00 7.765609e+00 5.024682e+00 1.955059e+00 2.993194e+00 2.200758e+00 2.255068e+00 2.222272e+00 2.211226e+01 2.165672e+00 4.139879e-01 8.320637e-01 6.120839e-01 6.038919e-01 1.652530e+00 6.115283e-01 3.672573e-01 4.833560e-01 3.918212e-01 4.904178e-01 4.042485e-01 3.429297e+00
<GCONST> 1.282562e+02
<STATE> 3
<MEAN> 39
 -1.648672e+01 -3.584577e+00 8.267514e+00 1.653109e+00 -7.151271e+00 -7.626383e+00 -5.332657e+00 -4.447967e+00 -1.453842e+00 -3.276719e+00 2.609101e+00 2.146037e-01 6.387010e+01 1.125724e+00 -5.552014e-01 -3.520770e-02 6.921925e-01 -7.102842e-01 -1.456915e-01 -7.037934e-01 -2.820726e-01 7.463382e-02 -1.151827e-01 -2.605531e-01 2.514050e-01 1.004086e-01 -1.577395e-01 6.703618e-03 -2.703592e-01 -1.098174e-01 1.356421e-01 1.072183e-01 -1.697359e-02 1.136013e-02 2.133732e-01 1.130381e-01 -1.818544e-02 4.287828e-02 3.652042e-02
<VARIANCE> 39
 8.426605e+01 6.884568e+01 3.108791e+01 8.345272e+01 4.934135e+01 1.008492e+02 7.037099e+01 5.302086e+01 3.591948e+01 4.060435e+01 3.352969e+01 3.496797e+01 1.036205e+02 1.298054e+01 7.280971e+00 4.302823e+00 9.695873e+00 5.277431e+00 1.099489e+01 1.002558e+01 7.095284e+00 4.962261e+00 5.841715e+00 4.676252e+00 4.005111e+00 1.298354e+01 1.825425e+00 1.617173e+00 6.217117e-01 1.370818e+00 1.065716e+00 1.962053e+00 1.662211e+00 1.343331e+00 9.109386e-01 1.098819e+00 7.588465e-01 7.145172e-01 2.567067e+00
<GCONST> 1.521947e+02
<STATE> 4
<MEAN> 39
 -1.639505e-01 -9.538638e+00 -9.227450e-01 8.369011e+00 -1.253015e+01 -1.186693e+01 -2.118024e+01 -1.262201e+01 7.771269e+00 -7.113039e+00 -1.208508e+00 2.903942e+00 7.188065e+01 8.292435e-03 4.197911e-02 9.716846e-02 2.744809e-01 -4.267902e-01 3.858250e-01 1.297558e-01 -3.668343e-01 1.226705e-01 -1.550684e-01 1.963259e-01 -1.321943e-01 -8.593392e-02 -1.449238e-01 5.861009e-02 2.759823e-01 1.049629e-01 -8.535848e-02 -3.643712e-02 3.641293e-01 1.245083e-01 -3.031893e-01 -1.011890e-02 1.517910e-02 -8.188950e-02 -1.259769e-01
<VARIANCE> 39
 1.279437e+01 2.762162e+01 7.813132e+01 1.143466e+02 1.055555e+02 1.031247e+02 1.108717e+02 1.533808e+02 6.942490e+01 1.250781e+02 1.021405e+02 6.221692e+01 2.434430e+01 4.456641e-01 6.781113e-01 3.319685e+00 2.359482e+00 4.596257e+00 2.437623e+00 3.187762e+00 3.612726e+00 4.392627e+00 2.853114e+00 2.355485e+00 1.317945e+00 7.605497e-01 1.195849e-01 1.488369e-01 1.904991e-01 3.360473e-01 7.666138e-01 4.157867e-01 4.343855e-01 7.355554e-01 7.068040e-01 5.027058e-01 6.174117e-01 2.845277e-01 1.876518e-01
<GCONST> 1.222979e+02
<STATE> 5
<MEAN> 39
 -7.474184e+00 -4.064137e+00 1.127497e+01 7.716994e+00 -1.947412e+01 -9.274401e+00 -9.191854e+00 -9.756019e+00 -3.635967e+00 -7.810923e+00 2.435193e+00 -1.213880e+00 6.441318e+01 -1.790032e+00 1.217748e+00 -5.766148e-01 -7.560220e-01 4.957020e-01 1.329190e+00 8.745689e-01 7.767560e-01 -4.577970e-01 5.225940e-01 3.083274e-01 -3.629394e-01 -2.603070e+00 -3.751678e-01 2.337168e-01 -2.590121e-01 -1.505061e-01 1.170546e-01 4.428010e-01 -8.101909e-02 -1.174954e-02 1.653410e-01 7.312973e-02 8.970573e-02 -4.619636e-02 -5.915219e-01
<VARIANCE> 39
 6.171407e+01 4.516868e+01 9.897664e+01 1.194649e+02 8.657146e+01 7.031157e+01 6.054838e+01 6.164444e+01 6.262741e+01 4.085978e+01 6.683486e+01 6.808056e+01 1.426489e+02 7.620821e+00 6.442698e+00 1.157413e+01 6.980088e+00 6.190706e+00 1.290770e+01 6.060792e+00 9.223824e+00 6.075200e+00 4.803352e+00 5.947804e+00 4.570288e+00 2.874077e+01 9.885604e-01 1.143927e+00 1.183672e+00 1.043449e+00 9.677299e-01 1.824128e+00 1.067643e+00 1.500745e+00 9.669713e-01 7.629011e-01 1.137238e+00 7.757494e-01 3.470937e+00
<GCONST> 1.560707e+02
<TRANSP> 6
 0.000000e+00 1.000000e+00 0.000000e+00 0.000000e+00 0.000000e+00 0.000000e+00
 0.000000e+00 8.941910e-01 1.058090e-01 0.000000e+00 0.000000e+00 0.000000e+00
 0.000000e+00 0.000000e+00 9.526272e-01 4.737278e-02 0.000000e+00 0.000000e+00
 0.000000e+00 0.000000e+00 0.000000e+00 9.321882e-01 6.781180e-02 0.000000e+00
 0.000000e+00 0.000000e+00 0.000000e+00 0.000000e+00 9.307649e-01 6.923512e-02
 0.000000e+00 0.000000e+00 0.000000e+00 0.000000e+00 0.000000e+00 0.000000e+00
<ENDHMM>
