~o
<STREAMINFO> 1 39
<VECSIZE> 39<NULLD><MFCC_D_A_0><DIAGC>
~h "sil"
<BEGINHMM>
<NUMSTATES> 6
<STATE> 2
<MEAN> 39
 -3.306689e+01 1.186956e+01 -4.468979e+00 1.199231e+00 -1.153429e+01 1.468346e+01 -3.989714e+00 -1.654276e+00 -8.904370e-01 -1.149355e-01 4.862741e+00 -4.167374e+00 2.318095e+01 -2.793365e+00 1.739758e+00 -4.959159e-01 1.605153e-01 3.289034e-01 2.849112e+00 5.482890e-01 1.990152e-01 3.072301e-01 4.731520e-01 4.952154e-01 -7.128761e-01 -4.455202e+00 1.593538e+00 -1.030733e+00 7.411236e-01 1.568285e-01 -3.050363e-01 -1.684363e+00 -3.184457e-01 -4.462477e-01 -1.846841e-01 -4.344980e-01 -1.763883e-01 4.109043e-01 2.752170e+00
<VARIANCE> 39
 1.605505e+01 8.097083e+00 4.147131e+00 6.996064e+00 4.899570e+00 1.690323e+01 7.510114e+00 3.627949e+00 4.495536e+00 4.999265e+00 3.435123e+00 5.088064e+00 2.278485e+01 9.723899e+00 4.140936e+00 2.475203e+00 1.436300e+00 1.342749e+00 1.191867e+01 1.910039e+00 1.194062e+00 1.622787e+00 1.654603e+00 1.366615e+00 1.817042e+00 2.764036e+01 6.003246e-01 2.463761e-01 7.112755e-01 5.738864e-01 3.911020e-01 7.013649e-01 3.096800e-01 4.472877e-01 4.562280e-01 3.832312e-01 2.736571e-01 3.600068e-01 1.564920e+00
<GCONST> 1.008202e+02
<STATE> 3
<MEAN> 39
 -3.387355e+01 1.264951e+01 -4.455770e+00 1.469357e+00 -1.113136e+01 1.518562e+01 -3.608753e+00 -1.743560e+00 -7.264866e-01 -3.659191e-01 4.641892e+00 -4.423231e+00 2.226324e+01 1.569722e-02 4.427813e-03 -1.908717e-02 -7.372969e-03 8.118061e-03 -4.689921e-02 -1.117685e-04 2.955557e-02 9.996237e-03 -2.481391e-02 -5.183896e-03 7.441804e-03 8.406772e-03 4.854606e-03 -2.634581e-03 1.376611e-03 3.857167e-03 -1.451409e-03 6.587877e-04 -7.724935e-04 -2.639818e-03 4.086572e-03 1.055663e-02 -8.562160e-03 -1.317559e-02 6.810012e-03
<VARIANCE> 39
 1.366637e+00 6.318182e-01 1.911413e+00 1.611513e+00 2.286817e+00 4.113776e+00 4.340210e+00 3.539833e+00 3.816229e+00 3.615937e+00 3.488822e+00 3.201530e+00 8.573086e-01 1.482041e-01 7.122091e-02 2.136208e-01 1.705224e-01 2.792177e-01 4.323993e-01 4.784303e-01 4.219226e-01 4.509520e-01 4.138818e-01 3.667775e-01 3.891621e-01 5.398749e-02 3.337370e-02 1.524909e-02 4.426138e-02 3.484691e-02 6.082317e-02 8.531044e-02 9.602834e-02 8.577021e-02 9.057596e-02 8.893317e-02 7.236860e-02 8.137222e-02 2.041886e-02
<GCONST> 2.642501e+01
<STATE> 4
<MEAN> 39
 -3.367700e+01 1.273501e+01 -4.496491e+00 1.304578e+00 -1.095290e+01 1.492230e+01 -4.064253e+00 -1.493177e+00 -5.684974e-01 -3.281038e-01 4.612926e+00 -4.652018e+00 2.228361e+01 1.061665e-01 -8.676817e-03 -1.062592e-01 -6.756128e-04 -1.150132e-01 -7.953996e-02 -1.751399e-01 5.513492e-02 1.971290e-01 1.035945e-01 -1.602312e-01 -7.535445e-02 6.096800e-02 6.043737e-01 -3.126258e-01 1.951777e-01 -1.284552e-01 5.200958e-01 -7.668578e-01 1.190050e-01 -6.918088e-02 1.129262e-01 -3.582110e-03 -2.267978e-01 1.158533e-01 1.565064e+00
<VARIANCE> 39
 1.405048e+00 3.940172e-01 1.897181e+00 1.544018e+00 2.079198e+00 4.544291e+00 3.054414e+00 3.719339e+00 4.075562e+00 3.781590e+00 3.525740e+00 2.788117e+00 7.549599e-01 1.586918e-01 7.027174e-02 1.746919e-01 2.405191e-01 3.152445e-01 5.987116e-01 4.510555e-01 3.188431e-01 5.262493e-01 4.840841e-01 3.958438e-01 4.362406e-01 7.443716e-02 3.403549e-01 9.570683e-02 1.770220e-01 9.008088e-02 3.508329e-01 6.827430e-01 1.824536e-01 1.410634e-01 1.125630e-01 1.012525e-01 1.351783e-01 1.071658e-01 2.010146e+00
<GCONST> 4.391978e+01
<STATE> 5
<MEAN> 39
 -2.778495e+01 1.013701e+01 -3.543504e+00 -2.663567e-01 -7.995064e+00 8.696038e+00 -3.299279e+00 -1.449816e+00 3.228875e-02 -3.008962e-01 3.218637e+00 -3.140713e+00 3.483038e+01 3.166266e+00 -1.799684e+00 1.545798e+00 -1.275939e+00 3.468741e+00 -4.683969e+00 7.617730e-01 2.569962e-02 5.502792e-01 5.630567e-02 -8.096464e-01 5.922676e-01 9.823071e+00 -4.350710e-01 -2.401560e-01 2.181190e-01 -3.653217e-01 7.953328e-01 -5.988145e-01 3.055911e-01 -5.171757e-03 2.169492e-01 -4.887246e-02 1.286460e-01 1.026134e-01 1.600886e+00
<VARIANCE> 39
 7.105162e+01 1.607623e+01 2.725752e+01 1.443160e+01 3.976001e+01 8.643559e+01 1.066894e+01 1.064408e+01 1.027247e+01 8.218928e+00 1.095940e+01 1.576401e+01 2.998512e+02 4.725322e+00 7.695334e-01 4.684117e+00 1.809777e+00 4.430809e+00 6.852676e+00 1.961291e+00 2.854642e+00 2.044704e+00 1.482954e+00 2.259276e+00 1.869172e+00 1.676524e+01 1.882356e+00 2.367870e-01 6.537846e-01 3.083037e-01 9.964430e-01 2.127807e+00 3.656528e-01 3.993918e-01 3.408329e-01 3.555681e-01 4.009131e-01 3.828177e-01 6.847072e+00
<GCONST> 1.211488e+02
<TRANSP> 6
 0.000000e+00 4.999996e-01 5.000004e-01 0.000000e+00 0.000000e+00 0.000000e+00
 0.000000e+00 7.240923e-01 2.759077e-01 0.000000e+00 0.000000e+00 0.000000e+00
 0.000000e+00 0.000000e+00 9.531203e-01 4.590308e-02 9.766300e-04 0.000000e+00
 0.000000e+00 0.000000e+00 0.000000e+00 3.200223e-01 2.893529e-01 3.906247e-01
 0.000000e+00 0.000000e+00 0.000000e+00 0.000000e+00 6.666670e-01 3.333330e-01
 0.000000e+00 0.000000e+00 0.000000e+00 0.000000e+00 0.000000e+00 0.000000e+00
<ENDHMM>
