~o
<STREAMINFO> 1 39
<VECSIZE> 39<NULLD><MFCC_D_A_0><DIAGC>
~h "security_english"
<BEGINHMM>
<NUMSTATES> 6
<STATE> 2
<MEAN> 39
 -3.021700e+01 4.372536e+00 -1.710703e+00 -6.202742e+00 5.381608e+00 -6.761558e+00 1.120537e+00 -1.853308e+00 4.329506e+00 -7.508258e-01 3.558517e+00 1.923190e-01 6.700227e+01 3.504641e-01 -7.294073e-01 6.109534e-01 -2.017735e-01 4.260786e-01 -1.885201e+00 -2.993061e-01 -5.068423e-02 -3.636930e-02 -4.724507e-01 -1.155633e-01 2.783354e-01 2.382385e+00 4.050745e-01 1.110747e-01 2.150215e-01 4.460824e-01 -6.737776e-01 2.713853e-01 -4.093275e-01 -7.730491e-02 -3.669236e-01 -2.142665e-01 -1.057648e-02 -9.345271e-02 -1.097784e+00
<VARIANCE> 39
 3.952514e+01 1.638940e+01 5.470969e+01 2.536167e+01 2.544043e+01 4.755092e+01 2.857450e+01 1.626834e+01 1.898766e+01 1.711120e+01 2.145654e+01 1.805916e+01 7.641731e+01 1.071272e+01 1.936348e+00 4.413151e+00 3.728153e+00 6.042759e+00 7.595680e+00 5.066075e+00 1.955389e+00 3.086985e+00 2.261224e+00 2.253241e+00 2.205986e+00 2.157634e+01 2.125071e+00 4.245587e-01 8.169276e-01 6.241415e-01 6.032948e-01 1.607159e+00 6.706325e-01 3.635287e-01 4.967916e-01 3.842914e-01 4.903935e-01 4.318491e-01 3.329518e+00
<GCONST> 1.290518e+02
<STATE> 3
<MEAN> 39
 -1.665509e+01 -3.403532e+00 8.367495e+00 1.686996e+00 -7.200435e+00 -7.448001e+00 -5.036411e+00 -4.430035e+00 -1.701383e+00 -3.193606e+00 2.753796e+00 1.512502e-01 6.353739e+01 1.026180e+00 -5.381064e-01 -3.930448e-02 6.411620e-01 -7.258045e-01 -1.178243e-01 -6.263058e-01 -2.666205e-01 2.958704e-02 -1.151546e-01 -2.331597e-01 2.259700e-01 9.225640e-02 -1.437958e-01 -8.798590e-03 -2.742729e-01 -1.215851e-01 1.362815e-01 9.248071e-02 -4.199115e-02 1.816775e-02 2.252182e-01 1.142815e-01 -4.048735e-02 4.328723e-02 5.646287e-02
<VARIANCE> 39
 7.959991e+01 6.818891e+01 3.117995e+01 8.333340e+01 4.572626e+01 1.017087e+02 6.615880e+01 5.358396e+01 3.444831e+01 4.053577e+01 3.048736e+01 3.307004e+01 1.040354e+02 1.287265e+01 7.508513e+00 4.057343e+00 9.636659e+00 5.335439e+00 1.119604e+01 1.014485e+01 7.255549e+00 4.669166e+00 5.824413e+00 4.653820e+00 4.059183e+00 1.347271e+01 1.811789e+00 1.655319e+00 6.358770e-01 1.373202e+00 1.041079e+00 2.006898e+00 1.642777e+00 1.382002e+00 9.026580e-01 1.117218e+00 7.306796e-01 7.002295e-01 2.653787e+00
<GCONST> 1.518616e+02
<STATE> 4
<MEAN> 39
 -9.529530e-02 -9.686840e+00 -7.934310e-01 8.435941e+00 -1.255227e+01 -1.180818e+01 -2.130456e+01 -1.247972e+01 7.720183e+00 -7.046732e+00 -1.368681e+00 2.919075e+00 7.186981e+01 4.901163e-02 3.408581e-03 3.361342e-02 3.342246e-01 -4.014644e-01 3.237418e-01 9.799511e-02 -2.849592e-01 1.768464e-01 -1.423156e-01 1.157017e-01 -1.013125e-01 -8.842184e-02 -1.913478e-01 9.377640e-02 2.587901e-01 7.434875e-02 -4.043784e-02 -2.401314e-02 4.073680e-01 1.328626e-01 -2.977951e-01 1.309423e-02 4.800294e-02 -9.754721e-02 -1.514488e-01
<VARIANCE> 39
 1.255660e+01 2.796890e+01 7.558696e+01 1.124748e+02 1.039259e+02 1.029471e+02 1.098801e+02 1.493485e+02 6.981953e+01 1.227223e+02 1.023218e+02 6.278729e+01 2.415024e+01 4.878501e-01 7.617147e-01 3.505790e+00 2.725051e+00 4.528275e+00 2.729415e+00 3.776330e+00 4.031484e+00 4.900990e+00 3.068510e+00 2.723099e+00 1.373422e+00 8.111977e-01 1.818007e-01 1.877553e-01 1.949465e-01 3.523334e-01 8.100416e-01 4.496744e-01 4.745375e-01 7.355353e-01 7.465284e-01 5.139917e-01 6.613417e-01 3.045203e-01 1.992220e-01
<GCONST> 1.246110e+02
<STATE> 5
<MEAN> 39
 -7.683469e+00 -3.931009e+00 1.149927e+01 7.578740e+00 -1.962391e+01 -9.371174e+00 -8.817713e+00 -9.701015e+00 -3.895881e+00 -7.862018e+00 2.547925e+00 -1.259727e+00 6.436670e+01 -1.827829e+00 1.247579e+00 -6.016905e-01 -8.639067e-01 5.128118e-01 1.414189e+00 8.205432e-01 7.087231e-01 -4.186913e-01 5.632180e-01 3.679038e-01 -3.720987e-01 -2.619159e+00 -3.760020e-01 2.132462e-01 -2.644758e-01 -1.454295e-01 1.041030e-01 4.577490e-01 -1.083824e-01 -3.320310e-02 1.874625e-01 6.533518e-02 8.568589e-02 -4.220706e-02 -5.866570e-01
<VARIANCE> 39
 6.046869e+01 4.480294e+01 9.813023e+01 1.199843e+02 8.622521e+01 6.960657e+01 5.325835e+01 6.156820e+01 5.782833e+01 3.991983e+01 6.636129e+01 6.916495e+01 1.451634e+02 7.673568e+00 6.450709e+00 1.168535e+01 6.420868e+00 6.219000e+00 1.266757e+01 5.872494e+00 9.056166e+00 6.000969e+00 4.701699e+00 5.783286e+00 4.641626e+00 2.922672e+01 1.005122e+00 1.136417e+00 1.203364e+00 1.059868e+00 9.711350e-01 1.828129e+00 1.038047e+00 1.500716e+00 9.272979e-01 7.683553e-01 1.147022e+00 7.865503e-01 3.527826e+00
<GCONST> 1.556817e+02
<TRANSP> 6
 0.000000e+00 1.000000e+00 0.000000e+00 0.000000e+00 0.000000e+00 0.000000e+00
 0.000000e+00 8.980892e-01 1.019108e-01 0.000000e+00 0.000000e+00 0.000000e+00
 0.000000e+00 0.000000e+00 9.507692e-01 4.923077e-02 0.000000e+00 0.000000e+00
 0.000000e+00 0.000000e+00 0.000000e+00 9.352227e-01 6.477734e-02 0.000000e+00
 0.000000e+00 0.000000e+00 0.000000e+00 0.000000e+00 9.295154e-01 7.048457e-02
 0.000000e+00 0.000000e+00 0.000000e+00 0.000000e+00 0.000000e+00 0.000000e+00
<ENDHMM>
