~o
<STREAMINFO> 1 39
<VECSIZE> 39<NULLD><MFCC_D_A_0><DIAGC>
~h "security_spanish"
<BEGINHMM>
<NUMSTATES> 6
<STATE> 2
<MEAN> 39
 -1.900520e+01 1.126792e+00 4.884980e+00 -1.973210e+00 -2.206348e+00 -1.008771e+01 -2.945125e+00 -1.984832e+00 -1.109899e+00 -5.176662e+00 2.748495e+00 -7.161779e-01 6.477380e+01 6.463521e-01 3.405807e-03 7.159263e-01 8.125314e-01 -1.227237e-01 -9.767845e-02 -9.053975e-02 1.973295e-01 -2.212696e-01 -2.269743e-01 -6.280871e-02 3.158239e-02 -9.036367e-02 -2.329683e-01 1.938210e-01 -2.620400e-01 6.544212e-02 -7.941499e-02 5.407423e-01 5.926152e-02 1.235084e-01 1.028301e-01 1.569598e-01 1.731347e-02 5.421978e-02 -8.215799e-01
<VARIANCE> 39
 1.083026e+02 2.820990e+01 8.911046e+01 1.089553e+02 9.869217e+01 4.724004e+01 6.295589e+01 5.091172e+01 5.800792e+01 5.275395e+01 2.056288e+01 2.770253e+01 7.823296e+01 1.098491e+01 4.431597e+00 6.064692e+00 8.433811e+00 9.631084e+00 1.030686e+01 6.503008e+00 6.414444e+00 5.480119e+00 6.445089e+00 2.714669e+00 3.206229e+00 2.052264e+01 2.157147e+00 4.908412e-01 1.093720e+00 1.269596e+00 1.622062e+00 1.188654e+00 1.149465e+00 1.138040e+00 1.092301e+00 1.184347e+00 6.173833e-01 6.568139e-01 1.998257e+00
<GCONST> 1.503894e+02
<STATE> 3
<MEAN> 39
 -2.115426e+01 -1.646600e+00 4.486705e+00 1.996152e+00 -5.681359e+00 1.947121e+00 -1.023306e+00 -1.246052e+00 2.588925e+00 -7.749680e-01 2.380902e+00 7.498997e-01 5.349573e+01 -1.228115e-01 -9.728912e-01 7.752736e-02 -4.407326e-01 -2.690820e-01 -6.760047e-01 -2.128135e-01 -1.009919e+00 4.849758e-02 -2.532409e-01 -1.644527e-01 -1.738839e-01 1.350445e+00 5.333651e-01 -4.360776e-02 2.518336e-01 2.579507e-01 -2.585089e-01 -5.558468e-01 -3.226701e-01 -2.989995e-01 -3.148611e-01 -3.683294e-01 -1.074470e-01 -1.046986e-01 4.273883e-01
<VARIANCE> 39
 3.954422e+01 1.048792e+02 3.882623e+01 8.795879e+01 4.489708e+01 5.858520e+01 2.899476e+01 6.292385e+01 2.093131e+01 2.483631e+01 3.469052e+01 2.058363e+01 1.661371e+02 6.976922e+00 8.275827e+00 5.506529e+00 7.704038e+00 6.632901e+00 7.786230e+00 4.178393e+00 4.530171e+00 4.723453e+00 5.241091e+00 4.643740e+00 3.366465e+00 1.215744e+01 7.599174e-01 1.805707e+00 8.114715e-01 9.948081e-01 1.423705e+00 1.000079e+00 5.110381e-01 8.731715e-01 5.824756e-01 7.070178e-01 8.604947e-01 5.396392e-01 2.517373e+00
<GCONST> 1.435274e+02
<STATE> 4
<MEAN> 39
 -4.362875e+00 -5.817527e+00 5.204109e+00 1.223473e+01 -1.405949e+01 -1.233337e+01 -9.884481e+00 -1.480573e+01 -4.544012e+00 -1.051394e+01 -3.847674e+00 -3.613683e+00 6.836543e+01 2.905019e-01 -8.675001e-02 6.514259e-02 1.899700e-01 -4.280588e-01 -2.440540e-01 -1.404428e-01 -1.506545e-01 -1.659914e-01 -2.097357e-01 -4.795264e-02 1.650197e-01 3.796337e-02 -2.188578e-01 2.338195e-02 -1.352465e-02 -1.963008e-01 7.346246e-02 1.094142e-01 9.474856e-02 1.356815e-01 6.243820e-02 1.599282e-01 1.212980e-01 4.511782e-02 -1.184151e-01
<VARIANCE> 39
 4.593404e+01 2.190967e+01 1.090931e+02 9.658295e+01 7.865096e+01 6.896339e+01 8.994757e+01 6.350861e+01 6.532193e+01 7.421661e+01 5.384753e+01 4.557656e+01 2.678001e+01 2.865804e+00 1.238174e+00 4.773147e+00 3.304493e+00 3.413786e+00 4.168408e+00 4.336629e+00 3.546381e+00 3.375403e+00 4.052499e+00 2.779839e+00 2.420812e+00 1.167971e+00 3.093021e-01 2.678809e-01 4.851694e-01 5.640522e-01 6.802416e-01 6.908712e-01 7.127047e-01 5.957655e-01 7.474946e-01 8.244764e-01 5.210571e-01 5.821272e-01 2.087555e-01
<GCONST> 1.301315e+02
<STATE> 5
<MEAN> 39
 -1.374171e+01 -7.590391e-01 8.222859e+00 3.990899e+00 -1.191479e+01 -6.567558e+00 -6.108724e+00 -6.337911e+00 -3.534735e+00 -5.349271e+00 3.401399e-01 -5.348203e-01 5.633155e+01 -1.269198e+00 1.021748e+00 -1.021242e+00 -6.845606e-01 4.450134e-01 1.587037e+00 2.882126e-01 7.864109e-01 3.455714e-01 7.938452e-01 4.225706e-01 -1.503841e-01 -2.238346e+00 -2.643382e-01 8.749230e-02 -9.460935e-02 1.088373e-01 -2.737529e-02 3.234811e-01 4.894339e-02 -3.605849e-02 5.405257e-02 -5.412234e-02 -5.040638e-02 -1.329709e-01 -3.726338e-01
<VARIANCE> 39
 7.924258e+01 5.756583e+01 9.363619e+01 9.130779e+01 7.718143e+01 1.059880e+02 5.609684e+01 6.380228e+01 5.349171e+01 6.643962e+01 3.899619e+01 3.219530e+01 1.880842e+02 1.261953e+01 8.839118e+00 9.844195e+00 9.044272e+00 7.212630e+00 1.585075e+01 5.670518e+00 7.522373e+00 6.063995e+00 7.471702e+00 4.208468e+00 5.598889e+00 2.644059e+01 1.903431e+00 1.447296e+00 1.576169e+00 1.444562e+00 1.225613e+00 2.548270e+00 1.097190e+00 1.075622e+00 1.166500e+00 1.213629e+00 7.241414e-01 1.142035e+00 3.495799e+00
<GCONST> 1.593903e+02
<TRANSP> 6
 0.000000e+00 1.000000e+00 0.000000e+00 0.000000e+00 0.000000e+00 0.000000e+00
 0.000000e+00 9.370078e-01 6.299213e-02 0.000000e+00 0.000000e+00 0.000000e+00
 0.000000e+00 0.000000e+00 9.223301e-01 7.766991e-02 0.000000e+00 0.000000e+00
 0.000000e+00 0.000000e+00 0.000000e+00 9.593909e-01 4.060913e-02 0.000000e+00
 0.000000e+00 0.000000e+00 0.000000e+00 0.000000e+00 9.365079e-01 6.349207e-02
 0.000000e+00 0.000000e+00 0.000000e+00 0.000000e+00 0.000000e+00 0.000000e+00
<ENDHMM>
