~o
<STREAMINFO> 1 39
<VECSIZE> 39<NULLD><MFCC_D_A_0><DIAGC>
~h "sil"
<BEGINHMM>
<NUMSTATES> 6
<STATE> 2
<MEAN> 39
 -3.306657e+01 1.186976e+01 -4.469094e+00 1.199194e+00 -1.153417e+01 1.468324e+01 -3.990179e+00 -1.653901e+00 -8.904403e-01 -1.155459e-01 4.862782e+00 -4.167464e+00 2.318101e+01 -2.792896e+00 1.739494e+00 -4.959257e-01 1.604368e-01 3.289629e-01 2.848723e+00 5.481299e-01 1.990326e-01 3.072399e-01 4.728621e-01 4.949928e-01 -7.126741e-01 -4.454484e+00 1.593354e+00 -1.030663e+00 7.410458e-01 1.568110e-01 -3.049818e-01 -1.684175e+00 -3.184129e-01 -4.462702e-01 -1.847503e-01 -4.343742e-01 -1.764012e-01 4.108585e-01 2.751856e+00
<VARIANCE> 39
 1.605327e+01 8.096146e+00 4.146590e+00 6.995000e+00 4.898911e+00 1.690093e+01 7.510278e+00 3.628213e+00 4.494849e+00 5.000695e+00 3.434556e+00 5.087323e+00 2.278149e+01 9.723703e+00 4.140708e+00 2.474795e+00 1.436099e+00 1.342554e+00 1.191772e+01 1.909906e+00 1.193865e+00 1.622530e+00 1.654848e+00 1.366709e+00 1.817022e+00 2.763905e+01 6.004354e-01 2.463681e-01 7.111956e-01 5.737934e-01 3.910571e-01 7.014629e-01 3.096386e-01 4.472173e-01 4.561820e-01 3.832611e-01 2.736111e-01 3.599650e-01 1.565270e+00
<GCONST> 1.008179e+02
<STATE> 3
<MEAN> 39
 -3.383863e+01 1.271559e+01 -4.365094e+00 1.521162e+00 -1.108148e+01 1.519035e+01 -3.628124e+00 -1.720036e+00 -7.293053e-01 -3.706248e-01 4.630059e+00 -4.435894e+00 2.207954e+01 1.463141e-02 8.109764e-03 -2.237104e-02 -8.946827e-03 1.070200e-02 -4.727598e-02 -5.047978e-03 2.716526e-02 1.532844e-02 -2.784044e-02 -2.225772e-03 9.524360e-03 7.538662e-03 6.196849e-03 -4.502886e-03 6.724481e-04 3.371481e-03 -4.285412e-03 1.508762e-03 1.637410e-03 -2.834539e-03 6.341530e-03 1.140861e-02 -9.161698e-03 -1.349846e-02 8.010166e-03
<VARIANCE> 39
 1.267650e+00 5.771220e-01 1.866731e+00 1.612528e+00 2.273274e+00 4.070282e+00 4.158741e+00 3.574725e+00 3.767183e+00 3.647806e+00 3.543935e+00 3.225567e+00 4.782050e-01 1.448019e-01 6.722126e-02 2.194524e-01 1.723845e-01 2.721912e-01 4.332992e-01 4.421631e-01 4.239161e-01 4.367386e-01 4.123939e-01 3.727466e-01 3.935574e-01 5.287646e-02 3.292233e-02 1.409659e-02 4.535964e-02 3.507648e-02 5.899942e-02 8.495115e-02 8.544543e-02 8.653166e-02 8.774429e-02 8.903664e-02 7.460953e-02 8.273526e-02 2.106558e-02
<GCONST> 2.529617e+01
<STATE> 4
<MEAN> 39
 -3.406356e+01 1.225795e+01 -5.018026e+00 1.050073e+00 -1.145978e+01 1.513934e+01 -3.563106e+00 -1.832129e+00 -5.969304e-01 -3.393396e-01 4.669572e+00 -4.458890e+00 2.348742e+01 6.031906e-02 -1.983123e-02 -2.123248e-02 -7.295748e-03 -4.846362e-02 -4.735478e-02 -3.448648e-02 6.064183e-02 5.082976e-02 3.165565e-02 -8.773801e-02 -5.026134e-02 3.436749e-02 1.201136e-01 -5.299952e-02 3.295559e-02 -5.647284e-03 9.747878e-02 -1.326201e-01 -8.211832e-03 -7.175039e-03 1.180004e-02 1.031560e-02 -5.590149e-02 1.559143e-02 2.604340e-01
<VARIANCE> 39
 1.973927e+00 7.271338e-01 1.748719e+00 1.296888e+00 2.143211e+00 4.554770e+00 5.110044e+00 3.172320e+00 4.104435e+00 3.369010e+00 2.896425e+00 2.986442e+00 1.653105e+00 1.751943e-01 9.377741e-02 1.597661e-01 1.885649e-01 3.487188e-01 4.379689e-01 7.040104e-01 3.559036e-01 5.877588e-01 4.880295e-01 3.563647e-01 3.844351e-01 6.798724e-02 1.265239e-01 4.429260e-02 4.124187e-02 3.752131e-02 1.185169e-01 1.957714e-01 1.639255e-01 8.666081e-02 1.053814e-01 8.133367e-02 5.973217e-02 6.966145e-02 3.811825e-01
<GCONST> 3.553043e+01
<STATE> 5
<MEAN> 39
 -2.921666e+01 1.075483e+01 -3.873950e+00 1.560818e-01 -8.638403e+00 1.012679e+01 -3.612080e+00 -1.431045e+00 -2.120417e-01 -2.775314e-01 3.635682e+00 -3.449612e+00 3.170312e+01 2.390513e+00 -1.359876e+00 1.122944e+00 -9.358974e-01 2.567783e+00 -3.546715e+00 5.394167e-01 2.237930e-02 4.419033e-01 8.137216e-02 -6.311942e-01 4.509116e-01 7.379031e+00 -3.883937e-02 -3.310840e-01 2.785400e-01 -3.606753e-01 8.918504e-01 -8.677127e-01 3.132413e-01 -4.947356e-02 2.155240e-01 -5.475322e-02 3.602317e-04 1.354582e-01 2.048426e+00
<VARIANCE> 39
 5.982168e+01 1.331419e+01 2.134509e+01 1.191871e+01 3.159186e+01 7.200448e+01 8.992874e+00 9.240124e+00 9.095852e+00 7.256086e+00 1.000311e+01 1.270034e+01 2.543647e+02 5.390712e+00 1.179780e+00 4.097996e+00 1.751617e+00 5.821728e+00 9.244334e+00 1.761732e+00 2.248428e+00 1.696069e+00 1.167968e+00 1.862903e+00 1.556914e+00 3.051419e+01 1.939276e+00 2.211721e-01 5.911367e-01 2.619772e-01 8.108460e-01 1.899219e+00 3.570679e-01 3.579293e-01 3.019228e-01 3.090998e-01 4.161476e-01 3.333669e-01 5.797527e+00
<GCONST> 1.180420e+02
<TRANSP> 6
 0.000000e+00 5.000000e-01 5.000000e-01 0.000000e+00 0.000000e+00 0.000000e+00
 0.000000e+00 7.241379e-01 2.758621e-01 0.000000e+00 0.000000e+00 0.000000e+00
 0.000000e+00 0.000000e+00 9.484978e-01 4.935622e-02 2.145923e-03 0.000000e+00
 0.000000e+00 0.000000e+00 0.000000e+00 6.714286e-01 1.571429e-01 1.714286e-01
 0.000000e+00 0.000000e+00 0.000000e+00 0.000000e+00 7.142857e-01 2.857143e-01
 0.000000e+00 0.000000e+00 0.000000e+00 0.000000e+00 0.000000e+00 0.000000e+00
<ENDHMM>
