~o
<STREAMINFO> 1 39
<VECSIZE> 39<NULLD><MFCC_D_A_0><DIAGC>
~h "security_spanish"
<BEGINHMM>
<NUMSTATES> 6
<STATE> 2
<MEAN> 39
 -1.904676e+01 1.068569e+00 4.821035e+00 -2.073385e+00 -2.221667e+00 -1.020966e+01 -2.870501e+00 -1.980272e+00 -1.087173e+00 -5.244960e+00 2.843255e+00 -6.688942e-01 6.494849e+01 6.804550e-01 -7.703302e-03 7.622277e-01 8.258492e-01 -1.723451e-01 -1.309376e-01 -1.199500e-01 1.619212e-01 -2.633493e-01 -2.337072e-01 -7.431442e-02 -6.083630e-03 -5.925169e-02 -2.295017e-01 2.014078e-01 -2.602634e-01 7.434674e-02 -7.008871e-02 5.533881e-01 4.479995e-02 1.275465e-01 1.057265e-01 1.691280e-01 1.314818e-03 4.882331e-02 -8.370848e-01
<VARIANCE> 39
 1.089880e+02 2.806997e+01 8.946902e+01 1.085191e+02 9.924849e+01 4.592551e+01 6.282296e+01 5.121897e+01 5.842354e+01 5.259387e+01 1.967528e+01 2.765010e+01 7.557541e+01 1.095071e+01 4.429674e+00 5.873079e+00 8.487917e+00 9.440806e+00 1.027296e+01 6.460443e+00 6.330364e+00 5.292024e+00 6.479120e+00 2.713220e+00 3.053817e+00 2.060012e+01 2.175246e+00 4.884617e-01 1.102875e+00 1.271131e+00 1.618579e+00 1.179397e+00 1.129122e+00 1.144403e+00 1.099388e+00 1.176353e+00 5.891765e-01 6.585143e-01 1.989596e+00
<GCONST> 1.500901e+02
<STATE> 3
<MEAN> 39
 -2.123296e+01 -1.450089e+00 4.434874e+00 1.911337e+00 -5.539101e+00 2.182672e+00 -9.698727e-01 -1.124543e+00 2.659246e+00 -5.677420e-01 2.367611e+00 7.898565e-01 5.310402e+01 -2.718780e-01 -1.017793e+00 2.665039e-02 -5.483549e-01 -2.781068e-01 -5.208247e-01 -1.203095e-01 -9.155277e-01 1.290457e-01 -1.866079e-01 -6.473336e-02 -1.307257e-01 1.292633e+00 5.167723e-01 -3.930333e-02 2.873698e-01 2.616509e-01 -2.669910e-01 -5.803282e-01 -3.108449e-01 -2.947962e-01 -3.277258e-01 -3.938659e-01 -9.083964e-02 -1.086283e-01 4.334503e-01
<VARIANCE> 39
 3.957437e+01 1.065616e+02 3.794695e+01 8.896674e+01 4.588861e+01 5.695415e+01 2.874657e+01 6.309340e+01 1.966962e+01 2.230201e+01 3.555391e+01 2.051711e+01 1.648008e+02 6.586312e+00 8.259835e+00 5.799395e+00 7.317769e+00 6.844918e+00 7.517601e+00 4.172457e+00 4.779883e+00 4.995465e+00 4.883937e+00 4.127072e+00 3.514394e+00 1.256169e+01 7.719898e-01 1.817460e+00 7.453561e-01 1.005275e+00 1.456853e+00 9.855132e-01 5.466512e-01 8.703089e-01 5.573632e-01 6.730683e-01 9.100125e-01 5.287814e-01 2.548908e+00
<GCONST> 1.432713e+02
<STATE> 4
<MEAN> 39
 -4.487863e+00 -5.817359e+00 5.261537e+00 1.220710e+01 -1.399526e+01 -1.227765e+01 -9.870040e+00 -1.469904e+01 -4.543007e+00 -1.046935e+01 -3.829724e+00 -3.606850e+00 6.831981e+01 3.413505e-01 -5.874279e-02 7.045555e-02 2.301696e-01 -3.869904e-01 -3.000404e-01 -1.605861e-01 -1.742850e-01 -1.839986e-01 -2.385440e-01 -9.330759e-02 1.611366e-01 5.487486e-02 -2.063801e-01 1.942602e-02 -3.306501e-02 -1.995859e-01 6.817900e-02 1.148685e-01 9.406332e-02 1.279607e-01 6.565327e-02 1.620250e-01 1.198968e-01 4.734266e-02 -1.133914e-01
<VARIANCE> 39
 4.673374e+01 2.175068e+01 1.084640e+02 9.574339e+01 7.782789e+01 6.863208e+01 8.897764e+01 6.356758e+01 6.540363e+01 7.433389e+01 5.333401e+01 4.514240e+01 2.673199e+01 3.076566e+00 1.290130e+00 4.725489e+00 3.474351e+00 3.507070e+00 4.435552e+00 4.392666e+00 3.612313e+00 3.352223e+00 4.231148e+00 3.047087e+00 2.451720e+00 1.192422e+00 3.223841e-01 2.766895e-01 5.098631e-01 5.622190e-01 6.722414e-01 6.914445e-01 7.118219e-01 6.001821e-01 7.521591e-01 8.353384e-01 5.172623e-01 5.846782e-01 2.136797e-01
<GCONST> 1.306724e+02
<STATE> 5
<MEAN> 39
 -1.376807e+01 -7.443917e-01 8.230978e+00 3.948834e+00 -1.191488e+01 -6.542296e+00 -6.084075e+00 -6.335745e+00 -3.507232e+00 -5.359603e+00 3.609839e-01 -5.481076e-01 5.633618e+01 -1.266857e+00 1.017501e+00 -1.030190e+00 -6.769655e-01 4.424905e-01 1.582985e+00 2.751215e-01 7.782812e-01 3.536516e-01 7.931877e-01 4.247282e-01 -1.467292e-01 -2.239740e+00 -2.663060e-01 8.363999e-02 -9.362676e-02 1.098613e-01 -2.657955e-02 3.190501e-01 5.005525e-02 -3.625697e-02 5.274459e-02 -5.498495e-02 -4.923892e-02 -1.296911e-01 -3.709443e-01
<VARIANCE> 39
 7.908059e+01 5.756141e+01 9.387719e+01 9.040648e+01 7.741969e+01 1.059315e+02 5.633769e+01 6.387909e+01 5.303256e+01 6.657404e+01 3.901075e+01 3.235910e+01 1.885766e+02 1.263338e+01 8.840874e+00 9.824107e+00 9.018668e+00 7.215007e+00 1.590307e+01 5.665376e+00 7.515162e+00 6.060053e+00 7.485448e+00 4.230014e+00 5.619500e+00 2.647388e+01 1.904530e+00 1.444908e+00 1.577367e+00 1.444692e+00 1.232150e+00 2.549295e+00 1.101120e+00 1.078260e+00 1.167753e+00 1.214855e+00 7.266110e-01 1.146698e+00 3.498123e+00
<GCONST> 1.594214e+02
<TRANSP> 6
 0.000000e+00 1.000000e+00 0.000000e+00 0.000000e+00 0.000000e+00 0.000000e+00
 0.000000e+00 9.364280e-01 6.357196e-02 0.000000e+00 0.000000e+00 0.000000e+00
 0.000000e+00 0.000000e+00 9.212965e-01 7.870353e-02 0.000000e+00 0.000000e+00
 0.000000e+00 0.000000e+00 0.000000e+00 9.599366e-01 4.006340e-02 0.000000e+00
 0.000000e+00 0.000000e+00 0.000000e+00 0.000000e+00 9.364226e-01 6.357741e-02
 0.000000e+00 0.000000e+00 0.000000e+00 0.000000e+00 0.000000e+00 0.000000e+00
<ENDHMM>
