~o
<STREAMINFO> 1 39
<VECSIZE> 39<NULLD><MFCC_D_A_0><DIAGC>
~h "security_english"
<BEGINHMM>
<NUMSTATES> 6
<STATE> 2
<MEAN> 39
 -3.035722e+01 4.602396e+00 -2.083502e+00 -6.203111e+00 5.434177e+00 -6.660741e+00 1.310291e+00 -1.853907e+00 4.277325e+00 -6.025588e-01 3.540414e+00 2.457390e-01 6.689061e+01 1.138963e-01 -7.219287e-01 5.097535e-01 -4.013486e-01 4.913632e-01 -1.866765e+00 -2.320544e-01 -1.185984e-02 2.771165e-02 -4.244395e-01 -7.539064e-02 2.499931e-01 2.483607e+00 3.863158e-01 1.060984e-01 2.285417e-01 4.164822e-01 -6.650831e-01 2.691355e-01 -4.189705e-01 -7.571727e-02 -3.580997e-01 -2.058392e-01 -1.113295e-02 -1.240764e-01 -1.127492e+00
<VARIANCE> 39
 3.964829e+01 1.473574e+01 5.241270e+01 2.552942e+01 2.535394e+01 4.784591e+01 2.815481e+01 1.620593e+01 1.870791e+01 1.687103e+01 2.133604e+01 1.781618e+01 7.850263e+01 9.439275e+00 1.941487e+00 4.242242e+00 2.673479e+00 6.004045e+00 7.765473e+00 5.024723e+00 1.955119e+00 2.993102e+00 2.200728e+00 2.254916e+00 2.222169e+00 2.211229e+01 2.165653e+00 4.139794e-01 8.321079e-01 6.120766e-01 6.039150e-01 1.652522e+00 6.115294e-01 3.672656e-01 4.833370e-01 3.918116e-01 4.903741e-01 4.042292e-01 3.429350e+00
<GCONST> 1.282559e+02
<STATE> 3
<MEAN> 39
 -1.648670e+01 -3.584556e+00 8.267700e+00 1.653122e+00 -7.151099e+00 -7.626475e+00 -5.332640e+00 -4.447852e+00 -1.453876e+00 -3.276787e+00 2.609153e+00 2.146558e-01 6.387025e+01 1.125746e+00 -5.552094e-01 -3.519978e-02 6.921968e-01 -7.102921e-01 -1.456791e-01 -7.038258e-01 -2.820886e-01 7.465699e-02 -1.151729e-01 -2.605727e-01 2.514032e-01 1.004121e-01 -1.577340e-01 6.705039e-03 -2.703566e-01 -1.098173e-01 1.356334e-01 1.072212e-01 -1.697545e-02 1.134778e-02 2.133742e-01 1.130432e-01 -1.818789e-02 4.287751e-02 3.652150e-02
<VARIANCE> 39
 8.426610e+01 6.884565e+01 3.108810e+01 8.345278e+01 4.934122e+01 1.008456e+02 7.037082e+01 5.302145e+01 3.591973e+01 4.060499e+01 3.352915e+01 3.496634e+01 1.036192e+02 1.298065e+01 7.281049e+00 4.302830e+00 9.696033e+00 5.277367e+00 1.099460e+01 1.002575e+01 7.095379e+00 4.962292e+00 5.841763e+00 4.676161e+00 4.004997e+00 1.298341e+01 1.825448e+00 1.617194e+00 6.217092e-01 1.370848e+00 1.065697e+00 1.961994e+00 1.662246e+00 1.343351e+00 9.109324e-01 1.098835e+00 7.588318e-01 7.144971e-01 2.567052e+00
<GCONST> 1.521946e+02
<STATE> 4
<MEAN> 39
 -1.640168e-01 -9.538692e+00 -9.221665e-01 8.369068e+00 -1.252998e+01 -1.186664e+01 -2.118010e+01 -1.262236e+01 7.771402e+00 -7.112746e+00 -1.208804e+00 2.904260e+00 7.188075e+01 8.286519e-03 4.197317e-02 9.718113e-02 2.744798e-01 -4.267932e-01 3.858034e-01 1.297771e-01 -3.668414e-01 1.226613e-01 -1.550783e-01 1.963114e-01 -1.321671e-01 -8.593248e-02 -1.449217e-01 5.860526e-02 2.759638e-01 1.049640e-01 -8.534981e-02 -3.644167e-02 3.641228e-01 1.245222e-01 -3.031860e-01 -1.013188e-02 1.518445e-02 -8.189040e-02 -1.259728e-01
<VARIANCE> 39
 1.279441e+01 2.762022e+01 7.813262e+01 1.143433e+02 1.055561e+02 1.031233e+02 1.108726e+02 1.533834e+02 6.942738e+01 1.250728e+02 1.021362e+02 6.221419e+01 2.434438e+01 4.456660e-01 6.781054e-01 3.319559e+00 2.359560e+00 4.596225e+00 2.437698e+00 3.187653e+00 3.612895e+00 4.392572e+00 2.853106e+00 2.355504e+00 1.317965e+00 7.606325e-01 1.195873e-01 1.488317e-01 1.905000e-01 3.360522e-01 7.666253e-01 4.158013e-01 4.343883e-01 7.355798e-01 7.068119e-01 5.026939e-01 6.174058e-01 2.845294e-01 1.876616e-01
<GCONST> 1.222981e+02
<STATE> 5
<MEAN> 39
 -7.474185e+00 -4.064235e+00 1.127515e+01 7.717042e+00 -1.947402e+01 -9.274300e+00 -9.191943e+00 -9.755928e+00 -3.635878e+00 -7.811113e+00 2.435118e+00 -1.213738e+00 6.441324e+01 -1.790056e+00 1.217773e+00 -5.766568e-01 -7.560375e-01 4.957044e-01 1.329201e+00 8.745769e-01 7.767905e-01 -4.578242e-01 5.226027e-01 3.083535e-01 -3.629751e-01 -2.603117e+00 -3.751714e-01 2.337235e-01 -2.590093e-01 -1.505069e-01 1.170506e-01 4.428093e-01 -8.101905e-02 -1.175515e-02 1.653395e-01 7.313927e-02 8.970901e-02 -4.619991e-02 -5.915363e-01
<VARIANCE> 39
 6.171383e+01 4.516879e+01 9.898003e+01 1.194636e+02 8.657019e+01 7.031141e+01 6.054740e+01 6.164531e+01 6.262836e+01 4.086094e+01 6.683443e+01 6.807934e+01 1.426497e+02 7.620733e+00 6.442620e+00 1.157444e+01 6.979969e+00 6.190636e+00 1.290789e+01 6.060784e+00 9.223947e+00 6.075231e+00 4.803428e+00 5.947739e+00 4.570275e+00 2.874096e+01 9.885482e-01 1.143900e+00 1.183719e+00 1.043436e+00 9.677228e-01 1.824131e+00 1.067635e+00 1.500778e+00 9.669690e-01 7.629096e-01 1.137227e+00 7.757385e-01 3.470924e+00
<GCONST> 1.560708e+02
<TRANSP> 6
 0.000000e+00 1.000000e+00 0.000000e+00 0.000000e+00 0.000000e+00 0.000000e+00
 0.000000e+00 8.941895e-01 1.058105e-01 0.000000e+00 0.000000e+00 0.000000e+00
 0.000000e+00 0.000000e+00 9.526270e-01 4.737299e-02 0.000000e+00 0.000000e+00
 0.000000e+00 0.000000e+00 0.000000e+00 9.321892e-01 6.781081e-02 0.000000e+00
 0.000000e+00 0.000000e+00 0.000000e+00 0.000000e+00 9.307639e-01 6.923609e-02
 0.000000e+00 0.000000e+00 0.000000e+00 0.000000e+00 0.000000e+00 0.000000e+00
<ENDHMM>
