~o
<STREAMINFO> 1 39
<VECSIZE> 39<NULLD><MFCC_D_A_0><DIAGC>
~h "security_spanish"
<BEGINHMM>
<NUMSTATES> 6
<STATE> 2
<MEAN> 39
 -1.904687e+01 1.068616e+00 4.820837e+00 -2.073593e+00 -2.221618e+00 -1.020975e+01 -2.870486e+00 -1.980259e+00 -1.087275e+00 -5.244755e+00 2.843290e+00 -6.689967e-01 6.494864e+01 6.804410e-01 -7.734346e-03 7.622412e-01 8.258140e-01 -1.723339e-01 -1.309491e-01 -1.199341e-01 1.619345e-01 -2.633489e-01 -2.336960e-01 -7.430802e-02 -6.070886e-03 -5.922931e-02 -2.295021e-01 2.013985e-01 -2.602605e-01 7.434776e-02 -7.009020e-02 5.533813e-01 4.480245e-02 1.275434e-01 1.057324e-01 1.691234e-01 1.315025e-03 4.882535e-02 -8.370795e-01
<VARIANCE> 39
 1.089885e+02 2.807016e+01 8.947169e+01 1.085159e+02 9.925005e+01 4.592688e+01 6.282332e+01 5.121875e+01 5.842559e+01 5.259092e+01 1.967572e+01 2.765105e+01 7.557636e+01 1.095077e+01 4.429555e+00 5.873119e+00 8.487674e+00 9.440763e+00 1.027305e+01 6.460484e+00 6.330155e+00 5.292199e+00 6.478732e+00 2.713314e+00 3.053902e+00 2.060042e+01 2.175239e+00 4.884642e-01 1.102876e+00 1.271078e+00 1.618544e+00 1.179432e+00 1.129108e+00 1.144381e+00 1.099404e+00 1.176302e+00 5.892008e-01 6.585262e-01 1.989632e+00
<GCONST> 1.500902e+02
<STATE> 3
<MEAN> 39
 -2.123293e+01 -1.450181e+00 4.434732e+00 1.911286e+00 -5.539223e+00 2.182761e+00 -9.697536e-01 -1.124603e+00 2.659389e+00 -5.676023e-01 2.367634e+00 7.899242e-01 5.310400e+01 -2.718652e-01 -1.017781e+00 2.663589e-02 -5.483590e-01 -2.781199e-01 -5.207884e-01 -1.203110e-01 -9.155326e-01 1.290646e-01 -1.866149e-01 -6.471145e-02 -1.307200e-01 1.292633e+00 5.167720e-01 -3.929600e-02 2.873819e-01 2.616416e-01 -2.669883e-01 -5.803321e-01 -3.108571e-01 -2.947854e-01 -3.277393e-01 -3.938631e-01 -9.083289e-02 -1.086371e-01 4.334543e-01
<VARIANCE> 39
 3.957385e+01 1.065601e+02 3.794761e+01 8.896478e+01 4.588986e+01 5.695190e+01 2.874605e+01 6.309552e+01 1.966925e+01 2.230167e+01 3.555526e+01 2.051693e+01 1.648010e+02 6.586185e+00 8.259657e+00 5.799541e+00 7.317336e+00 6.844953e+00 7.517438e+00 4.172504e+00 4.779960e+00 4.995513e+00 4.884009e+00 4.127146e+00 3.514449e+00 1.256177e+01 7.720043e-01 1.817424e+00 7.453582e-01 1.005250e+00 1.456876e+00 9.854620e-01 5.466573e-01 8.703139e-01 5.573561e-01 6.730518e-01 9.100458e-01 5.287788e-01 2.548908e+00
<GCONST> 1.432712e+02
<STATE> 4
<MEAN> 39
 -4.487741e+00 -5.817288e+00 5.261655e+00 1.220709e+01 -1.399533e+01 -1.227743e+01 -9.870059e+00 -1.469858e+01 -4.543013e+00 -1.046919e+01 -3.829302e+00 -3.606849e+00 6.831985e+01 3.413451e-01 -5.873024e-02 7.047150e-02 2.301634e-01 -3.869875e-01 -3.000447e-01 -1.605802e-01 -1.742572e-01 -1.840101e-01 -2.385311e-01 -9.329135e-02 1.611283e-01 5.486725e-02 -2.063741e-01 1.942521e-02 -3.307279e-02 -1.995803e-01 6.817760e-02 1.148619e-01 9.406235e-02 1.279490e-01 6.565761e-02 1.620252e-01 1.198884e-01 4.734570e-02 -1.133909e-01
<VARIANCE> 39
 4.673328e+01 2.175118e+01 1.084673e+02 9.574378e+01 7.782886e+01 6.862888e+01 8.897849e+01 6.356720e+01 6.540433e+01 7.433324e+01 5.333511e+01 4.514262e+01 2.673140e+01 3.076581e+00 1.290169e+00 4.725525e+00 3.474346e+00 3.507157e+00 4.435468e+00 4.392751e+00 3.612263e+00 3.352185e+00 4.230997e+00 3.047086e+00 2.451683e+00 1.192453e+00 3.223827e-01 2.766950e-01 5.098687e-01 5.622072e-01 6.722589e-01 6.914431e-01 7.118303e-01 6.001822e-01 7.521404e-01 8.353150e-01 5.172635e-01 5.846733e-01 2.136822e-01
<GCONST> 1.306725e+02
<STATE> 5
<MEAN> 39
 -1.376810e+01 -7.445363e-01 8.231050e+00 3.948501e+00 -1.191520e+01 -6.542500e+00 -6.084171e+00 -6.335608e+00 -3.507399e+00 -5.359322e+00 3.613378e-01 -5.481259e-01 5.633632e+01 -1.266899e+00 1.017517e+00 -1.030253e+00 -6.769723e-01 4.425291e-01 1.583031e+00 2.751187e-01 7.782871e-01 3.536862e-01 7.932132e-01 4.247082e-01 -1.467266e-01 -2.239812e+00 -2.663152e-01 8.364782e-02 -9.362113e-02 1.098725e-01 -2.657892e-02 3.190786e-01 5.006373e-02 -3.625512e-02 5.274527e-02 -5.500099e-02 -4.924660e-02 -1.297002e-01 -3.709579e-01
<VARIANCE> 39
 7.908068e+01 5.756109e+01 9.387702e+01 9.040583e+01 7.742336e+01 1.059342e+02 5.633938e+01 6.387488e+01 5.303429e+01 6.657131e+01 3.901157e+01 3.236048e+01 1.885762e+02 1.263344e+01 8.840843e+00 9.824109e+00 9.018619e+00 7.215203e+00 1.590341e+01 5.665576e+00 7.514743e+00 6.060179e+00 7.485334e+00 4.230128e+00 5.619676e+00 2.647363e+01 1.904548e+00 1.444893e+00 1.577387e+00 1.444676e+00 1.232194e+00 2.549380e+00 1.101185e+00 1.078232e+00 1.167759e+00 1.214853e+00 7.266309e-01 1.146731e+00 3.498079e+00
<GCONST> 1.594218e+02
<TRANSP> 6
 0.000000e+00 1.000000e+00 0.000000e+00 0.000000e+00 0.000000e+00 0.000000e+00
 0.000000e+00 9.364287e-01 6.357135e-02 0.000000e+00 0.000000e+00 0.000000e+00
 0.000000e+00 0.000000e+00 9.212959e-01 7.870409e-02 0.000000e+00 0.000000e+00
 0.000000e+00 0.000000e+00 0.000000e+00 9.599376e-01 4.006238e-02 0.000000e+00
 0.000000e+00 0.000000e+00 0.000000e+00 0.000000e+00 9.364198e-01 6.358019e-02
 0.000000e+00 0.000000e+00 0.000000e+00 0.000000e+00 0.000000e+00 0.000000e+00
<ENDHMM>
