~o
<STREAMINFO> 1 39
<VECSIZE> 39<NULLD><MFCC_D_A_0><DIAGC>
~h "security_english"
<BEGINHMM>
<NUMSTATES> 6
<STATE> 2
<MEAN> 39
 -3.035749e+01 4.602715e+00 -2.084018e+00 -6.202959e+00 5.434453e+00 -6.660546e+00 1.310633e+00 -1.853915e+00 4.277436e+00 -6.023908e-01 3.540165e+00 2.456426e-01 6.689034e+01 1.134450e-01 -7.218982e-01 5.095795e-01 -4.016585e-01 4.915164e-01 -1.866682e+00 -2.318894e-01 -1.181714e-02 2.777913e-02 -4.243658e-01 -7.530175e-02 2.499883e-01 2.483768e+00 3.862726e-01 1.061046e-01 2.285478e-01 4.163980e-01 -6.650967e-01 2.691354e-01 -4.190111e-01 -7.572354e-02 -3.581039e-01 -2.058133e-01 -1.111303e-02 -1.241112e-01 -1.127554e+00
<VARIANCE> 39
 3.964947e+01 1.473420e+01 5.241075e+01 2.552954e+01 2.535275e+01 4.784979e+01 2.815221e+01 1.620523e+01 1.870812e+01 1.687112e+01 2.133656e+01 1.781664e+01 7.850780e+01 9.437082e+00 1.941538e+00 4.241925e+00 2.672423e+00 6.004088e+00 7.765673e+00 5.024579e+00 1.955163e+00 2.993122e+00 2.200712e+00 2.254992e+00 2.222271e+00 2.211375e+01 2.165746e+00 4.139691e-01 8.321428e-01 6.119809e-01 6.039052e-01 1.652610e+00 6.114039e-01 3.672737e-01 4.833146e-01 3.918287e-01 4.904140e-01 4.042259e-01 3.429614e+00
<GCONST> 1.282552e+02
<STATE> 3
<MEAN> 39
 -1.648714e+01 -3.584605e+00 8.267608e+00 1.652691e+00 -7.150923e+00 -7.626256e+00 -5.332713e+00 -4.447878e+00 -1.453657e+00 -3.276781e+00 2.609192e+00 2.147761e-01 6.387041e+01 1.125913e+00 -5.552397e-01 -3.511209e-02 6.922891e-01 -7.103430e-01 -1.457765e-01 -7.038937e-01 -2.820934e-01 7.460426e-02 -1.152200e-01 -2.605887e-01 2.513867e-01 1.004174e-01 -1.576930e-01 6.706611e-03 -2.703430e-01 -1.097618e-01 1.356120e-01 1.072232e-01 -1.697202e-02 1.135664e-02 2.133523e-01 1.130185e-01 -1.819000e-02 4.288840e-02 3.650856e-02
<VARIANCE> 39
 8.426884e+01 6.884596e+01 3.108765e+01 8.345272e+01 4.934462e+01 1.008459e+02 7.037101e+01 5.302116e+01 3.592023e+01 4.060343e+01 3.352869e+01 3.496626e+01 1.036191e+02 1.298133e+01 7.280936e+00 4.303008e+00 9.695825e+00 5.277409e+00 1.099467e+01 1.002590e+01 7.095193e+00 4.962154e+00 5.841622e+00 4.676087e+00 4.004961e+00 1.298310e+01 1.825476e+00 1.617167e+00 6.217044e-01 1.370895e+00 1.065735e+00 1.961949e+00 1.662321e+00 1.343308e+00 9.109388e-01 1.098808e+00 7.588281e-01 7.144997e-01 2.566993e+00
<GCONST> 1.521946e+02
<STATE> 4
<MEAN> 39
 -1.640612e-01 -9.538925e+00 -9.224123e-01 8.369296e+00 -1.253065e+01 -1.186668e+01 -2.118016e+01 -1.262214e+01 7.771310e+00 -7.113289e+00 -1.208207e+00 2.903906e+00 7.188077e+01 8.272578e-03 4.200386e-02 9.720662e-02 2.745011e-01 -4.267997e-01 3.857865e-01 1.298283e-01 -3.668068e-01 1.226409e-01 -1.551012e-01 1.963224e-01 -1.321687e-01 -8.594126e-02 -1.449214e-01 5.861406e-02 2.759590e-01 1.049503e-01 -8.534078e-02 -3.643472e-02 3.641214e-01 1.245084e-01 -3.031831e-01 -1.011240e-02 1.517455e-02 -8.189023e-02 -1.259748e-01
<VARIANCE> 39
 1.279425e+01 2.762152e+01 7.813605e+01 1.143440e+02 1.055564e+02 1.031196e+02 1.108687e+02 1.533823e+02 6.942722e+01 1.250713e+02 1.021370e+02 6.221444e+01 2.434261e+01 4.456761e-01 6.781092e-01 3.319703e+00 2.359535e+00 4.596343e+00 2.437640e+00 3.187748e+00 3.612888e+00 4.392828e+00 2.853126e+00 2.355605e+00 1.317948e+00 7.606042e-01 1.195901e-01 1.488414e-01 1.905059e-01 3.360369e-01 7.666554e-01 4.157905e-01 4.343911e-01 7.355752e-01 7.068298e-01 5.027078e-01 6.174192e-01 2.845271e-01 1.876575e-01
<GCONST> 1.222983e+02
<STATE> 5
<MEAN> 39
 -7.474308e+00 -4.064093e+00 1.127524e+01 7.716630e+00 -1.947447e+01 -9.274270e+00 -9.192039e+00 -9.755875e+00 -3.636198e+00 -7.811188e+00 2.435451e+00 -1.214082e+00 6.441329e+01 -1.790087e+00 1.217796e+00 -5.766894e-01 -7.560701e-01 4.957674e-01 1.329237e+00 8.745636e-01 7.767715e-01 -4.577895e-01 5.226479e-01 3.083353e-01 -3.629509e-01 -2.603169e+00 -3.751784e-01 2.337208e-01 -2.590177e-01 -1.505001e-01 1.170456e-01 4.428169e-01 -8.102432e-02 -1.175539e-02 1.653524e-01 7.313307e-02 8.971152e-02 -4.619767e-02 -5.915473e-01
<VARIANCE> 39
 6.171320e+01 4.516774e+01 9.897866e+01 1.194621e+02 8.657217e+01 7.031230e+01 6.054561e+01 6.164439e+01 6.262835e+01 4.086154e+01 6.683646e+01 6.808282e+01 1.426517e+02 7.620708e+00 6.442481e+00 1.157454e+01 6.979640e+00 6.190827e+00 1.290789e+01 6.060683e+00 9.223742e+00 6.075306e+00 4.803552e+00 5.947967e+00 4.570412e+00 2.874137e+01 9.885617e-01 1.143865e+00 1.183738e+00 1.043406e+00 9.677561e-01 1.824169e+00 1.067630e+00 1.500738e+00 9.669864e-01 7.629303e-01 1.137283e+00 7.757685e-01 3.470991e+00
<GCONST> 1.560710e+02
<TRANSP> 6
 0.000000e+00 1.000000e+00 0.000000e+00 0.000000e+00 0.000000e+00 0.000000e+00
 0.000000e+00 8.941813e-01 1.058187e-01 0.000000e+00 0.000000e+00 0.000000e+00
 0.000000e+00 0.000000e+00 9.526287e-01 4.737133e-02 0.000000e+00 0.000000e+00
 0.000000e+00 0.000000e+00 0.000000e+00 9.321909e-01 6.780905e-02 0.000000e+00
 0.000000e+00 0.000000e+00 0.000000e+00 0.000000e+00 9.307620e-01 6.923802e-02
 0.000000e+00 0.000000e+00 0.000000e+00 0.000000e+00 0.000000e+00 0.000000e+00
<ENDHMM>
