~o
<STREAMINFO> 1 39
<VECSIZE> 39<NULLD><MFCC_D_A_0><DIAGC>
~h "security_spanish"
<BEGINHMM>
<NUMSTATES> 6
<STATE> 2
<MEAN> 39
 -1.904675e+01 1.068520e+00 4.820814e+00 -2.073391e+00 -2.221787e+00 -1.020987e+01 -2.870718e+00 -1.980501e+00 -1.087278e+00 -5.244792e+00 2.843185e+00 -6.689087e-01 6.494852e+01 6.804695e-01 -7.709355e-03 7.622070e-01 8.258840e-01 -1.724067e-01 -1.309338e-01 -1.199671e-01 1.619259e-01 -2.633453e-01 -2.337150e-01 -7.431892e-02 -6.080305e-03 -5.930407e-02 -2.294921e-01 2.014150e-01 -2.602561e-01 7.435172e-02 -7.008683e-02 5.533929e-01 4.479970e-02 1.275556e-01 1.057261e-01 1.691275e-01 1.308805e-03 4.881531e-02 -8.370961e-01
<VARIANCE> 39
 1.089897e+02 2.807079e+01 8.946776e+01 1.085183e+02 9.924701e+01 4.592655e+01 6.282569e+01 5.121845e+01 5.842321e+01 5.259260e+01 1.967512e+01 2.765030e+01 7.557040e+01 1.095080e+01 4.429791e+00 5.872899e+00 8.487834e+00 9.440271e+00 1.027286e+01 6.460690e+00 6.330200e+00 5.291989e+00 6.478897e+00 2.713245e+00 3.053780e+00 2.059927e+01 2.175257e+00 4.884828e-01 1.102857e+00 1.271139e+00 1.618502e+00 1.179395e+00 1.129157e+00 1.144365e+00 1.099358e+00 1.176333e+00 5.891797e-01 6.585028e-01 1.989608e+00
<GCONST> 1.500899e+02
<STATE> 3
<MEAN> 39
 -2.123267e+01 -1.450289e+00 4.434624e+00 1.911739e+00 -5.539381e+00 2.182631e+00 -9.703067e-01 -1.124575e+00 2.659186e+00 -5.677986e-01 2.367481e+00 7.898130e-01 5.310380e+01 -2.718569e-01 -1.017783e+00 2.664352e-02 -5.483350e-01 -2.780464e-01 -5.208266e-01 -1.203653e-01 -9.155245e-01 1.290486e-01 -1.865889e-01 -6.472154e-02 -1.307317e-01 1.292597e+00 5.167842e-01 -3.931115e-02 2.873476e-01 2.616427e-01 -2.669833e-01 -5.803268e-01 -3.108552e-01 -2.947869e-01 -3.277206e-01 -3.938629e-01 -9.083917e-02 -1.086199e-01 4.334598e-01
<VARIANCE> 39
 3.957479e+01 1.065664e+02 3.794644e+01 8.896610e+01 4.589043e+01 5.695569e+01 2.874690e+01 6.309385e+01 1.966956e+01 2.230249e+01 3.555485e+01 2.051671e+01 1.647960e+02 6.586432e+00 8.260468e+00 5.799360e+00 7.317770e+00 6.845290e+00 7.518061e+00 4.172513e+00 4.779889e+00 4.995301e+00 4.883987e+00 4.127311e+00 3.514340e+00 1.256179e+01 7.719958e-01 1.817569e+00 7.453797e-01 1.005283e+00 1.456930e+00 9.855354e-01 5.466346e-01 8.703032e-01 5.573514e-01 6.730776e-01 9.100310e-01 5.287691e-01 2.548903e+00
<GCONST> 1.432717e+02
<STATE> 4
<MEAN> 39
 -4.487824e+00 -5.817516e+00 5.261487e+00 1.220703e+01 -1.399514e+01 -1.227767e+01 -9.870541e+00 -1.469849e+01 -4.543183e+00 -1.046933e+01 -3.829401e+00 -3.606677e+00 6.831976e+01 3.413360e-01 -5.876332e-02 7.044444e-02 2.301490e-01 -3.870049e-01 -3.000431e-01 -1.605845e-01 -1.742680e-01 -1.840108e-01 -2.385478e-01 -9.329744e-02 1.611474e-01 5.488501e-02 -2.063912e-01 1.942144e-02 -3.306025e-02 -1.995811e-01 6.817123e-02 1.148616e-01 9.407365e-02 1.279528e-01 6.565236e-02 1.620263e-01 1.198983e-01 4.734063e-02 -1.133923e-01
<VARIANCE> 39
 4.673328e+01 2.175117e+01 1.084654e+02 9.574561e+01 7.782803e+01 6.862951e+01 8.897337e+01 6.356828e+01 6.540176e+01 7.433238e+01 5.333652e+01 4.514191e+01 2.673046e+01 3.076556e+00 1.290099e+00 4.725422e+00 3.474217e+00 3.506974e+00 4.435380e+00 4.392560e+00 3.612153e+00 3.352045e+00 4.231092e+00 3.046941e+00 2.451660e+00 1.192492e+00 3.223839e-01 2.766863e-01 5.098547e-01 5.622109e-01 6.722273e-01 6.914312e-01 7.117966e-01 6.001680e-01 7.521039e-01 8.353247e-01 5.172617e-01 5.846696e-01 2.136863e-01
<GCONST> 1.306718e+02
<STATE> 5
<MEAN> 39
 -1.376781e+01 -7.444943e-01 8.230929e+00 3.948971e+00 -1.191535e+01 -6.542529e+00 -6.084560e+00 -6.335775e+00 -3.507384e+00 -5.359674e+00 3.610054e-01 -5.480933e-01 5.633610e+01 -1.266870e+00 1.017534e+00 -1.030175e+00 -6.769818e-01 4.424853e-01 1.583016e+00 2.751696e-01 7.782750e-01 3.536659e-01 7.932054e-01 4.247234e-01 -1.467301e-01 -2.239756e+00 -2.663078e-01 8.364976e-02 -9.362698e-02 1.098592e-01 -2.657087e-02 3.190752e-01 5.005502e-02 -3.625586e-02 5.275156e-02 -5.498507e-02 -4.924395e-02 -1.296905e-01 -3.709523e-01
<VARIANCE> 39
 7.907847e+01 5.756207e+01 9.387660e+01 9.040811e+01 7.742014e+01 1.059333e+02 5.633880e+01 6.388148e+01 5.303193e+01 6.657345e+01 3.901215e+01 3.235887e+01 1.885741e+02 1.263287e+01 8.840905e+00 9.824005e+00 9.018410e+00 7.214943e+00 1.590305e+01 5.665509e+00 7.515170e+00 6.060018e+00 7.485203e+00 4.230052e+00 5.619303e+00 2.647363e+01 1.904441e+00 1.444929e+00 1.577318e+00 1.444636e+00 1.232151e+00 2.549300e+00 1.101156e+00 1.078254e+00 1.167735e+00 1.214803e+00 7.266192e-01 1.146660e+00 3.498080e+00
<GCONST> 1.594212e+02
<TRANSP> 6
 0.000000e+00 1.000000e+00 0.000000e+00 0.000000e+00 0.000000e+00 0.000000e+00
 0.000000e+00 9.364275e-01 6.357252e-02 0.000000e+00 0.000000e+00 0.000000e+00
 0.000000e+00 0.000000e+00 9.212966e-01 7.870340e-02 0.000000e+00 0.000000e+00
 0.000000e+00 0.000000e+00 0.000000e+00 9.599361e-01 4.006392e-02 0.000000e+00
 0.000000e+00 0.000000e+00 0.000000e+00 0.000000e+00 9.364215e-01 6.357852e-02
 0.000000e+00 0.000000e+00 0.000000e+00 0.000000e+00 0.000000e+00 0.000000e+00
<ENDHMM>
